{"learner":{"attributes":{"scikit_learn":"{\"_estimator_type\": \"classifier\"}"},"feature_names":[],"feature_types":[],"gradient_booster":{"model":{"cats":{"enc":[],"feature_segments":[],"sorted_idx":[]},"gbtree_model_param":{"num_parallel_tree":"1","num_trees":"25"},"iteration_indptr":[0,1,2,3,4,5,6,7,8,9,10,11,12,13,14,15,16,17,18,19,20,21,22,23,24,25],"tree_info":[0,0,0,0,0,0,0,0,0,0,0,0,0,0,0,0,0,0,0,0,0,0,0,0,0],"trees":[{"base_weights":[1.3854556E-8,-1.0942941E-1,7.728314E-2,3.948408E-1,-1.5031421E-1,2.8926077E-1,2.0277087E-2,5.903061E-3,-6.66122E-3,-1.7545416E-3,5.024519E-3,6.8925223E-3,1.8096919E-3,5.5645197E-3,-3.9195478E-5],"categories":[],"categories_nodes":[],"categories_segments":[],"categories_sizes":[],"default_left":[0,0,0,0,0,0,0,0,0,0,0,0,0,0,0],"id":0,"left_children":[1,3,5,7,9,11,13,-1,-1,-1,-1,-1,-1,-1,-1],"loss_changes":[3.5227833E1,3.560639E1,2.949527E1,2.726615E1,2.627245E1,2.2283367E1,2.4976633E1,0E0,0E0,0E0,0E0,0E0,0E0,0E0,0E0],"parents":[2147483647,0,0,1,1,2,2,3,3,4,4,5,5,6,6],"right_children":[2,4,6,8,10,12,14,-1,-1,-1,-1,-1,-1,-1,-1],"split_conditions":[5.448446E-2,1.7777073E-1,-1.1258553E-1,-2.3575465E-1,3.4526196E-1,8.907555E-2,1.7445272E-1,5.903061E-3,-6.66122E-3,-1.7545416E-3,5.024519E-3,6.8925223E-3,1.8096919E-3,5.5645197E-3,-3.9195478E-5],"split_indices":[246,385,353,572,403,446,524,0,0,0,0,0,0,0,0],"split_type":[0,0,0,0,0,0,0,0,0,0,0,0,0,0,0],"sum_hessian":[4.1635E3,1.723163E3,2.4403372E3,1.2858217E2,1.5945808E3,5.1632025E2,1.9240168E3,1.0895295E2,1.9629213E1,1.5361503E3,5.8430477E1,1.08860954E2,4.0745926E2,8.212851E1,1.8418883E3],"tree_param":{"num_deleted":"0","num_feature":"768","num_nodes":"15","size_leaf_vector":"1"}},{"base_weights":[4.034636E-6,-1.083337E-1,7.651612E-2,3.908901E-1,-1.4880902E-1,4.9783263E-2,5.2538496E-1,5.8446187E-3,-6.597908E-3,-1.7370074E-3,4.975151E-3,-1.2311533E-3,1.362316E-3,7.249335E-3,-1.4995903E-3],"categories":[],"categories_nodes":[],"categories_segments":[],"categories_sizes":[],"default_left":[0,0,0,0,0,0,0,0,0,0,0,0,0,0,0],"id":1,"left_children":[1,3,5,7,9,11,13,-1,-1,-1,-1,-1,-1,-1,-1],"loss_changes":[3.45284E1,3.4896965E1,2.9268753E1,2.6740086E1,2.5756298E1,3.4472363E1,1.8587418E1,0E0,0E0,0E0,0E0,0E0,0E0,0E0,0E0],"parents":[2147483647,0,0,1,1,2,2,3,3,4,4,5,5,6,6],"right_children":[2,4,6,8,10,12,14,-1,-1,-1,-1,-1,-1,-1,-1],"split_conditions":[5.448446E-2,1.7777073E-1,3.8133764E-1,-2.3575465E-1,3.4526196E-1,-1.4757615E-1,1.9059616E-1,5.8446187E-3,-6.597908E-3,-1.7370074E-3,4.975151E-3,-1.2311533E-3,1.362316E-3,7.249335E-3,-1.4995903E-3],"split_indices":[246,385,325,572,403,663,723,0,0,0,0,0,0,0,0],"split_type":[0,0,0,0,0,0,0,0,0,0,0,0,0,0,0],"sum_hessian":[4.163495E3,1.7231603E3,2.4403347E3,1.28581E2,1.5945793E3,2.3042158E3,1.3611908E2,1.08951996E2,1.9628996E1,1.5361492E3,5.843011E1,7.6792487E2,1.5362909E3,1.05015884E2,3.11032E1],"tree_param":{"num_deleted":"0","num_feature":"768","num_nodes":"15","size_leaf_vector":"1"}},{"base_weights":[5.9644885E-6,-1.07249595E-1,7.5753525E-2,3.674487E-1,-1.4899096E-1,4.1665394E-2,4.226315E-1,5.5471472E-3,-6.5039685E-3,-1.738633E-3,4.926325E-3,6.939573E-3,2.3367007E-4,-8.3080246E-5,7.2884583E-3],"categories":[],"categories_nodes":[],"categories_segments":[],"categories_sizes":[],"default_left":[0,0,0,0,0,0,0,0,0,0,0,0,0,0,0],"id":2,"left_children":[1,3,5,7,9,11,13,-1,-1,-1,-1,-1,-1,-1,-1],"loss_changes":[3.3841827E1,3.421805E1,2.884972E1,2.6977951E1,2.5388283E1,2.6529139E1,2.8817692E1,0E0,0E0,0E0,0E0,0E0,0E0,0E0,0E0],"parents":[2147483647,0,0,1,1,2,2,3,3,4,4,5,5,6,6],"right_children":[2,4,6,8,10,12,14,-1,-1,-1,-1,-1,-1,-1,-1],"split_conditions":[5.448446E-2,1.8021445E-1,-2.1327834E-1,-2.3575465E-1,3.4526196E-1,-4.846382E-1,-1.5484183E-1,5.5471472E-3,-6.5039685E-3,-1.738633E-3,4.926325E-3,6.939573E-3,2.3367007E-4,-8.3080246E-5,7.2884583E-3],"split_indices":[246,385,572,572,403,276,89,0,0,0,0,0,0,0,0],"split_type":[0,0,0,0,0,0,0,0,0,0,0,0,0,0,0],"sum_hessian":[4.1634834E3,1.7231521E3,2.4403313E3,1.3864352E2,1.5845085E3,2.2229949E3,2.1733636E2,1.17483574E2,2.1159948E1,1.5260795E3,5.8429016E1,5.9651257E1,2.1633438E3,9.0685844E1,1.2665052E2],"tree_param":{"num_deleted":"0","num_feature":"768","num_nodes":"15","size_leaf_vector":"1"}},{"base_weights":[9.833473E-6,-1.0617675E-1,7.500201E-2,3.83323E-1,-1.4586128E-1,2.8438208E-1,1.8695612E-2,5.732114E-3,-6.473776E-3,-1.7026446E-3,4.87804E-3,6.795882E-3,1.7739197E-3,5.4888222E-3,-5.2296855E-5],"categories":[],"categories_nodes":[],"categories_segments":[],"categories_sizes":[],"default_left":[0,0,0,0,0,0,0,0,0,0,0,0,0,0,0],"id":3,"left_children":[1,3,5,7,9,11,13,-1,-1,-1,-1,-1,-1,-1,-1],"loss_changes":[3.3170284E1,3.3548298E1,2.877655E1,2.5730694E1,2.4756027E1,2.1753155E1,2.4421398E1,0E0,0E0,0E0,0E0,0E0,0E0,0E0,0E0],"parents":[2147483647,0,0,1,1,2,2,3,3,4,4,5,5,6,6],"right_children":[2,4,6,8,10,12,14,-1,-1,-1,-1,-1,-1,-1,-1],"split_conditions":[5.448446E-2,1.7777073E-1,-1.1258553E-1,-2.3575465E-1,3.4526196E-1,8.907555E-2,1.7445272E-1,5.732114E-3,-6.473776E-3,-1.7026446E-3,4.87804E-3,6.795882E-3,1.7739197E-3,5.4888222E-3,-5.2296855E-5],"split_indices":[246,385,353,572,403,446,524,0,0,0,0,0,0,0,0],"split_type":[0,0,0,0,0,0,0,0,0,0,0,0,0,0,0],"sum_hessian":[4.163466E3,1.723139E3,2.440327E3,1.285721E2,1.5945669E3,5.163151E2,1.9240117E3,1.089448E2,1.9627296E1,1.5361396E3,5.8427223E1,1.08857864E2,4.0745728E2,8.2127075E1,1.8418846E3],"tree_param":{"num_deleted":"0","num_feature":"768","num_nodes":"15","size_leaf_vector":"1"}},{"base_weights":[1.3889939E-5,-1.0511431E-1,7.42581E-2,3.6036223E-1,-1.460414E-1,4.7852796E-2,5.1764953E-1,-8.428679E-3,5.1467232E-3,-1.7042559E-3,4.830283E-3,-1.2315521E-3,1.3335703E-3,-5.116881E-3,6.4416924E-3],"categories":[],"categories_nodes":[],"categories_segments":[],"categories_sizes":[],"default_left":[0,0,0,0,0,0,0,0,0,0,0,0,0,0,0],"id":4,"left_children":[1,3,5,7,9,11,13,-1,-1,-1,-1,-1,-1,-1,-1],"loss_changes":[3.251192E1,3.2898163E1,2.85579E1,2.6359041E1,2.4402729E1,3.3722904E1,1.818623E1,0E0,0E0,0E0,0E0,0E0,0E0,0E0,0E0],"parents":[2147483647,0,0,1,1,2,2,3,3,4,4,5,5,6,6],"right_children":[2,4,6,8,10,12,14,-1,-1,-1,-1,-1,-1,-1,-1],"split_conditions":[5.448446E-2,1.8021445E-1,3.8133764E-1,-1.3311046E-1,3.4526196E-1,-1.4757615E-1,-9.031551E-2,-8.428679E-3,5.1467232E-3,-1.7042559E-3,4.830283E-3,-1.2315521E-3,1.3335703E-3,-5.116881E-3,6.4416924E-3],"split_indices":[246,385,325,153,403,663,103,0,0,0,0,0,0,0,0],"split_type":[0,0,0,0,0,0,0,0,0,0,0,0,0,0,0],"sum_hessian":[4.163439E3,1.723121E3,2.440318E3,1.3863031E2,1.5844907E3,2.3042039E3,1.3611438E2,1.5250744E1,1.2337956E2,1.5260659E3,5.842475E1,7.6792255E2,1.5362812E3,1.4565797E1,1.2154858E2],"tree_param":{"num_deleted":"0","num_feature":"768","num_nodes":"15","size_leaf_vector":"1"}},{"base_weights":[1.400902E-5,-1.0406433E-1,7.351629E-2,3.7595946E-1,-1.4297748E-1,3.979498E-2,4.166742E-1,5.639704E-3,-6.443092E-3,-1.669018E-3,4.783045E-3,6.836496E-3,2.1734816E-4,-9.6559925E-5,7.196338E-3],"categories":[],"categories_nodes":[],"categories_segments":[],"categories_sizes":[],"default_left":[0,0,0,0,0,0,0,0,0,0,0,0,0,0,0],"id":5,"left_children":[1,3,5,7,9,11,13,-1,-1,-1,-1,-1,-1,-1,-1],"loss_changes":[3.186538E1,3.2258682E1,2.823359E1,2.5215704E1,2.3795593E1,2.5845823E1,2.8206734E1,0E0,0E0,0E0,0E0,0E0,0E0,0E0,0E0],"parents":[2147483647,0,0,1,1,2,2,3,3,4,4,5,5,6,6],"right_children":[2,4,6,8,10,12,14,-1,-1,-1,-1,-1,-1,-1,-1],"split_conditions":[5.448446E-2,1.7777073E-1,-2.1327834E-1,-2.3575465E-1,3.4526196E-1,-4.846382E-1,-1.5484183E-1,5.639704E-3,-6.443092E-3,-1.669018E-3,4.783045E-3,6.836496E-3,2.1734816E-4,-9.6559925E-5,7.196338E-3],"split_indices":[246,385,572,572,403,276,89,0,0,0,0,0,0,0,0],"split_type":[0,0,0,0,0,0,0,0,0,0,0,0,0,0,0],"sum_hessian":[4.1634116E3,1.7231029E3,2.4403088E3,1.2855957E2,1.5945433E3,2.222978E3,2.1733078E2,1.0893307E2,1.9626507E1,1.5361217E3,5.8421616E1,5.9647797E1,2.1633303E3,9.068515E1,1.2664562E2],"tree_param":{"num_deleted":"0","num_feature":"768","num_nodes":"15","size_leaf_vector":"1"}},{"base_weights":[1.7672062E-5,-1.0302421E-1,7.2787195E-2,3.5340077E-1,-1.4315173E-1,2.795978E-1,1.7173607E-2,-8.379759E-3,5.0623342E-3,-1.6705729E-3,4.736324E-3,6.701089E-3,1.7388932E-3,5.4145674E-3,-6.483515E-5],"categories":[],"categories_nodes":[],"categories_segments":[],"categories_sizes":[],"default_left":[0,0,0,0,0,0,0,0,0,0,0,0,0,0,0],"id":6,"left_children":[1,3,5,7,9,11,13,-1,-1,-1,-1,-1,-1,-1,-1],"loss_changes":[3.123326E1,3.1627401E1,2.8073732E1,2.5845453E1,2.3456066E1,2.1237808E1,2.387931E1,0E0,0E0,0E0,0E0,0E0,0E0,0E0,0E0],"parents":[2147483647,0,0,1,1,2,2,3,3,4,4,5,5,6,6],"right_children":[2,4,6,8,10,12,14,-1,-1,-1,-1,-1,-1,-1,-1],"split_conditions":[5.448446E-2,1.8021445E-1,-1.1258553E-1,-1.3311046E-1,3.4526196E-1,8.907555E-2,1.7445272E-1,-8.379759E-3,5.0623342E-3,-1.6705729E-3,4.736324E-3,6.701089E-3,1.7388932E-3,5.4145674E-3,-6.483515E-5],"split_indices":[246,385,353,153,403,446,524,0,0,0,0,0,0,0,0],"split_type":[0,0,0,0,0,0,0,0,0,0,0,0,0,0,0],"sum_hessian":[4.163374E3,1.7230764E3,2.4402976E3,1.3861479E2,1.5844615E3,5.163004E2,1.9239972E3,1.5250397E1,1.233644E2,1.5260438E3,5.841784E1,1.0884882E2,4.074516E2,8.212289E1,1.8418744E3],"tree_param":{"num_deleted":"0","num_feature":"768","num_nodes":"15","size_leaf_vector":"1"}},{"base_weights":[2.089345E-5,-1.0199542E-1,7.206549E-2,3.6875355E-1,-1.4015217E-1,4.5985222E-2,5.100357E-1,5.549169E-3,-6.412187E-3,-1.63607E-3,4.690106E-3,-1.2315381E-3,1.3055648E-3,7.070942E-3,-1.5654388E-3],"categories":[],"categories_nodes":[],"categories_segments":[],"categories_sizes":[],"default_left":[0,0,0,0,0,0,0,0,0,0,0,0,0,0,0],"id":7,"left_children":[1,3,5,7,9,11,13,-1,-1,-1,-1,-1,-1,-1,-1],"loss_changes":[3.061405E1,3.10195E1,2.7861801E1,2.4712152E1,2.287305E1,3.2990047E1,1.8120056E1,0E0,0E0,0E0,0E0,0E0,0E0,0E0,0E0],"parents":[2147483647,0,0,1,1,2,2,3,3,4,4,5,5,6,6],"right_children":[2,4,6,8,10,12,14,-1,-1,-1,-1,-1,-1,-1,-1],"split_conditions":[5.448446E-2,1.7777073E-1,3.8133764E-1,-2.3575465E-1,3.4526196E-1,-1.4757615E-1,1.9059616E-1,5.549169E-3,-6.412187E-3,-1.63607E-3,4.690106E-3,-1.2315381E-3,1.3055648E-3,7.070942E-3,-1.5654388E-3],"split_indices":[246,385,325,572,403,663,723,0,0,0,0,0,0,0,0],"split_type":[0,0,0,0,0,0,0,0,0,0,0,0,0,0,0],"sum_hessian":[4.163333E3,1.7230502E3,2.4402827E3,1.2854128E2,1.5945089E3,2.3041785E3,1.3610432E2,1.0891589E2,1.9625385E1,1.5360955E3,5.841344E1,7.679179E2,1.5362605E3,1.0500214E2,3.1102184E1],"tree_param":{"num_deleted":"0","num_feature":"768","num_nodes":"15","size_leaf_vector":"1"}},{"base_weights":[2.2406204E-5,-1.0097656E-1,7.134756E-2,3.465862E-1,-1.4031997E-1,3.798905E-2,4.1083398E-1,-8.33089E-3,4.979628E-3,-6.5912926E-3,-1.121026E-3,-1.4314447E-3,1.0168082E-3,-1.0933749E-4,7.105839E-3],"categories":[],"categories_nodes":[],"categories_segments":[],"categories_sizes":[],"default_left":[0,0,0,0,0,0,0,0,0,0,0,0,0,0,0],"id":8,"left_children":[1,3,5,7,9,11,13,-1,-1,-1,-1,-1,-1,-1,-1],"loss_changes":[3.0005726E1,3.0406214E1,2.763116E1,2.5342808E1,2.3135786E1,2.5671616E1,2.7608696E1,0E0,0E0,0E0,0E0,0E0,0E0,0E0,0E0],"parents":[2147483647,0,0,1,1,2,2,3,3,4,4,5,5,6,6],"right_children":[2,4,6,8,10,12,14,-1,-1,-1,-1,-1,-1,-1,-1],"split_conditions":[5.448446E-2,1.8021445E-1,-2.1327834E-1,-1.3311046E-1,-2.017238E-1,-7.6604284E-2,-1.5484183E-1,-8.33089E-3,4.979628E-3,-6.5912926E-3,-1.121026E-3,-1.4314447E-3,1.0168082E-3,-1.0933749E-4,7.105839E-3],"split_indices":[246,385,572,153,395,498,89,0,0,0,0,0,0,0,0],"split_type":[0,0,0,0,0,0,0,0,0,0,0,0,0,0,0],"sum_hessian":[4.1632827E3,1.7230155E3,2.440267E3,1.3859358E2,1.5844219E3,2.2229485E3,2.1731877E2,1.5249681E1,1.233439E2,8.057616E1,1.5038458E3,5.779798E2,1.6449686E3,9.0684006E1,1.2663477E2],"tree_param":{"num_deleted":"0","num_feature":"768","num_nodes":"15","size_leaf_vector":"1"}},{"base_weights":[2.1385285E-5,-9.9974215E-2,7.0637345E-2,3.6170113E-1,-1.3738948E-1,2.7516973E-1,1.5638825E-2,-1.6556947E-2,4.5174705E-3,-1.6060562E-3,4.6557663E-3,6.6112396E-3,1.7070855E-3,5.3438307E-3,-7.7660676E-5],"categories":[],"categories_nodes":[],"categories_segments":[],"categories_sizes":[],"default_left":[0,0,0,0,0,0,0,0,0,0,0,0,0,0,0],"id":9,"left_children":[1,3,5,7,9,11,13,-1,-1,-1,-1,-1,-1,-1,-1],"loss_changes":[2.9411972E1,2.9829403E1,2.7457312E1,2.427588E1,2.2409075E1,2.0742355E1,2.3375568E1,0E0,0E0,0E0,0E0,0E0,0E0,0E0,0E0],"parents":[2147483647,0,0,1,1,2,2,3,3,4,4,5,5,6,6],"right_children":[2,4,6,8,10,12,14,-1,-1,-1,-1,-1,-1,-1,-1],"split_conditions":[5.448446E-2,1.7777073E-1,-1.1258553E-1,5.4057345E-2,3.4526196E-1,8.907555E-2,1.7445272E-1,-1.6556947E-2,4.5174705E-3,-1.6060562E-3,4.6557663E-3,6.6112396E-3,1.7070855E-3,5.3438307E-3,-7.7660676E-5],"split_indices":[246,385,353,671,403,446,524,0,0,0,0,0,0,0,0],"split_type":[0,0,0,0,0,0,0,0,0,0,0,0,0,0,0],"sum_hessian":[4.1632437E3,1.7229905E3,2.4402534E3,1.2851749E2,1.594473E3,5.1627814E2,1.9239751E3,4.7483296E0,1.23769165E2,1.5360632E3,5.8409744E1,1.08835014E2,4.0744315E2,8.211662E1,1.8418585E3],"tree_param":{"num_deleted":"0","num_feature":"768","num_nodes":"15","size_leaf_vector":"1"}},{"base_weights":[2.2117714E-5,-9.898205E-2,6.993709E-2,3.580202E-1,-1.3601616E-1,4.4170342E-2,5.02693E-1,5.421502E-3,-6.403509E-3,-1.59003E-3,4.610417E-3,-1.2321346E-3,1.2786571E-3,-3.671964E-3,6.4980686E-3],"categories":[],"categories_nodes":[],"categories_segments":[],"categories_sizes":[],"default_left":[0,0,0,0,0,0,0,0,0,0,0,0,0,0,0],"id":10,"left_children":[1,3,5,7,9,11,13,-1,-1,-1,-1,-1,-1,-1,-1],"loss_changes":[2.8830906E1,2.9226067E1,2.7199282E1,2.4154448E1,2.197E1,3.230909E1,1.7782284E1,0E0,0E0,0E0,0E0,0E0,0E0,0E0,0E0],"parents":[2147483647,0,0,1,1,2,2,3,3,4,4,5,5,6,6],"right_children":[2,4,6,8,10,12,14,-1,-1,-1,-1,-1,-1,-1,-1],"split_conditions":[5.448446E-2,1.7777073E-1,3.8133764E-1,-2.3575465E-1,3.4526196E-1,-1.4757615E-1,-2.786704E-1,5.421502E-3,-6.403509E-3,-1.59003E-3,4.610417E-3,-1.2321346E-3,1.2786571E-3,-3.671964E-3,6.4980686E-3],"split_indices":[246,385,325,572,403,663,313,0,0,0,0,0,0,0,0],"split_type":[0,0,0,0,0,0,0,0,0,0,0,0,0,0,0],"sum_hessian":[4.163188E3,1.7229551E3,2.4402327E3,1.2850697E2,1.5944481E3,2.3041436E3,1.3608911E2,1.0888266E2,1.962431E1,1.5360438E3,5.840431E1,7.6791174E2,1.5362318E3,1.946947E1,1.16619644E2],"tree_param":{"num_deleted":"0","num_feature":"768","num_nodes":"15","size_leaf_vector":"1"}},{"base_weights":[2.3161652E-5,-9.799331E-2,6.9239415E-2,3.3664855E-1,-1.3619211E-1,3.6234744E-2,4.0515277E-1,-8.299748E-3,4.864304E-3,-6.495965E-3,-1.0827186E-3,-1.4310593E-3,9.92976E-4,-1.21831246E-4,7.0179617E-3],"categories":[],"categories_nodes":[],"categories_segments":[],"categories_sizes":[],"default_left":[0,0,0,0,0,0,0,0,0,0,0,0,0,0,0],"id":11,"left_children":[1,3,5,7,9,11,13,-1,-1,-1,-1,-1,-1,-1,-1],"loss_changes":[2.8257591E1,2.8667599E1,2.705034E1,2.4789524E1,2.265475E1,2.5166075E1,2.703421E1,0E0,0E0,0E0,0E0,0E0,0E0,0E0,0E0],"parents":[2147483647,0,0,1,1,2,2,3,3,4,4,5,5,6,6],"right_children":[2,4,6,8,10,12,14,-1,-1,-1,-1,-1,-1,-1,-1],"split_conditions":[5.448446E-2,1.8021445E-1,-2.1327834E-1,-1.3311046E-1,-2.017238E-1,-7.6604284E-2,-1.5484183E-1,-8.299748E-3,4.864304E-3,-6.495965E-3,-1.0827186E-3,-1.4310593E-3,9.92976E-4,-1.21831246E-4,7.0179617E-3],"split_indices":[246,385,572,153,395,498,89,0,0,0,0,0,0,0,0],"split_type":[0,0,0,0,0,0,0,0,0,0,0,0,0,0,0],"sum_hessian":[4.1631245E3,1.722911E3,2.4402134E3,1.3855554E2,1.5843555E3,2.2229124E3,2.173011E2,1.5248276E1,1.2330727E2,8.056888E1,1.5037866E3,5.779749E2,1.6449374E3,9.0682465E1,1.2661864E2],"tree_param":{"num_deleted":"0","num_feature":"768","num_nodes":"15","size_leaf_vector":"1"}},{"base_weights":[2.1847429E-5,-9.702173E-2,6.8550274E-2,6.543534E-2,-1.980069E-1,2.7094877E-1,1.4128423E-2,6.8016658E-3,-4.587996E-5,-1.1817727E-3,-5.644269E-3,3.8972967E-3,-5.925178E-4,5.2748607E-3,-9.030642E-5],"categories":[],"categories_nodes":[],"categories_segments":[],"categories_sizes":[],"default_left":[0,0,0,0,0,0,0,0,0,0,0,0,0,0,0],"id":12,"left_children":[1,3,5,7,9,11,13,-1,-1,-1,-1,-1,-1,-1,-1],"loss_changes":[2.7698736E1,2.829446E1,2.6885681E1,2.8480516E1,3.1036446E1,2.0310394E1,2.2890205E1,0E0,0E0,0E0,0E0,0E0,0E0,0E0,0E0],"parents":[2147483647,0,0,1,1,2,2,3,3,4,4,5,5,6,6],"right_children":[2,4,6,8,10,12,14,-1,-1,-1,-1,-1,-1,-1,-1],"split_conditions":[5.448446E-2,2.2091705E-1,-1.1258553E-1,1.7777073E-1,8.549347E-1,-1.5139185E-2,1.7445272E-1,6.8016658E-3,-4.587996E-5,-1.1817727E-3,-5.644269E-3,3.8972967E-3,-5.925178E-4,5.2748607E-3,-9.030642E-5],"split_indices":[246,686,353,385,414,171,524,0,0,0,0,0,0,0,0],"split_type":[0,0,0,0,0,0,0,0,0,0,0,0,0,0,0],"sum_hessian":[4.163071E3,1.7228771E3,2.4401938E3,6.6056445E2,1.0623126E3,5.162493E2,1.9239446E3,6.665861E1,5.939059E2,8.733613E2,1.8895125E2,3.795397E2,1.3670964E2,8.2108215E1,1.8418363E3],"tree_param":{"num_deleted":"0","num_feature":"768","num_nodes":"15","size_leaf_vector":"1"}},{"base_weights":[2.3686245E-5,-9.6053265E-2,6.786892E-2,6.4792536E-2,-1.9603658E-1,4.237392E-2,4.9610996E-1,6.735891E-3,-4.542135E-5,-1.1699803E-3,-5.588404E-3,-1.2314093E-3,1.2513694E-3,-5.191448E-3,6.210496E-3],"categories":[],"categories_nodes":[],"categories_segments":[],"categories_sizes":[],"default_left":[0,0,0,0,0,0,0,0,0,0,0,0,0,0,0],"id":13,"left_children":[1,3,5,7,9,11,13,-1,-1,-1,-1,-1,-1,-1,-1],"loss_changes":[2.7149115E1,2.7735435E1,2.6631714E1,2.7927639E1,3.0425133E1,3.1591835E1,1.770963E1,0E0,0E0,0E0,0E0,0E0,0E0,0E0,0E0],"parents":[2147483647,0,0,1,1,2,2,3,3,4,4,5,5,6,6],"right_children":[2,4,6,8,10,12,14,-1,-1,-1,-1,-1,-1,-1,-1],"split_conditions":[5.448446E-2,2.2091705E-1,3.8133764E-1,1.7777073E-1,8.549347E-1,-1.4757615E-1,-9.031551E-2,6.735891E-3,-4.542135E-5,-1.1699803E-3,-5.588404E-3,-1.2314093E-3,1.2513694E-3,-5.191448E-3,6.210496E-3],"split_indices":[246,686,325,385,414,663,103,0,0,0,0,0,0,0,0],"split_type":[0,0,0,0,0,0,0,0,0,0,0,0,0,0,0],"sum_hessian":[4.1630205E3,1.7228473E3,2.4401733E3,6.605519E2,1.0622954E3,2.3040996E3,1.360738E2,6.664623E1,5.9390564E2,8.733536E2,1.8894179E2,7.6790515E2,1.5361943E3,1.4564897E1,1.2150891E2],"tree_param":{"num_deleted":"0","num_feature":"768","num_nodes":"15","size_leaf_vector":"1"}},{"base_weights":[2.3637358E-5,-9.509471E-2,6.719128E-2,1.5203275E-1,-1.5905944E-1,3.4526188E-2,3.996819E-1,4.5203175E-3,-6.625166E-4,-5.015111E-5,-2.7756686E-3,6.6597573E-3,1.6820147E-4,-1.3388263E-4,6.9334516E-3],"categories":[],"categories_nodes":[],"categories_segments":[],"categories_sizes":[],"default_left":[0,0,0,0,0,0,0,0,0,0,0,0,0,0,0],"id":14,"left_children":[1,3,5,7,9,11,13,-1,-1,-1,-1,-1,-1,-1,-1],"loss_changes":[2.6609415E1,2.727325E1,2.6499113E1,2.327391E1,2.5005993E1,2.4852709E1,2.6487297E1,0E0,0E0,0E0,0E0,0E0,0E0,0E0,0E0],"parents":[2147483647,0,0,1,1,2,2,3,3,4,4,5,5,6,6],"right_children":[2,4,6,8,10,12,14,-1,-1,-1,-1,-1,-1,-1,-1],"split_conditions":[5.448446E-2,-5.6938475E-1,-2.1327834E-1,1.1723464E-1,-8.5156076E-2,-4.846382E-1,-1.5484183E-1,4.5203175E-3,-6.625166E-4,-5.015111E-5,-2.7756686E-3,6.6597573E-3,1.6820147E-4,-1.3388263E-4,6.9334516E-3],"split_indices":[246,256,572,451,510,276,89,0,0,0,0,0,0,0,0],"split_type":[0,0,0,0,0,0,0,0,0,0,0,0,0,0,0],"sum_hessian":[4.162961E3,1.7228126E3,2.4401482E3,3.5395032E2,1.3688623E3,2.2228691E3,2.1727898E2,1.4862155E2,2.0532875E2,5.956442E2,7.732181E2,5.963123E1,2.163238E3,9.068077E1,1.265982E2],"tree_param":{"num_deleted":"0","num_feature":"768","num_nodes":"15","size_leaf_vector":"1"}},{"base_weights":[2.693075E-5,-9.414412E-2,6.652568E-2,3.291856E-1,-1.3134211E-1,2.6643887E-1,1.277516E-2,5.0729793E-3,-6.3731265E-3,-6.3876626E-3,-1.0375243E-3,6.4746365E-3,1.6334752E-3,-4.173595E-4,2.2855713E-3],"categories":[],"categories_nodes":[],"categories_segments":[],"categories_sizes":[],"default_left":[0,0,0,0,0,0,0,0,0,0,0,0,0,0,0],"id":15,"left_children":[1,3,5,7,9,11,13,-1,-1,-1,-1,-1,-1,-1,-1],"loss_changes":[2.6081778E1,2.7187859E1,2.6227516E1,2.4341091E1,2.2127047E1,2.0210648E1,2.2651278E1,0E0,0E0,0E0,0E0,0E0,0E0,0E0,0E0],"parents":[2147483647,0,0,1,1,2,2,3,3,4,4,5,5,6,6],"right_children":[2,4,6,8,10,12,14,-1,-1,-1,-1,-1,-1,-1,-1],"split_conditions":[5.448446E-2,1.8021445E-1,-1.1258553E-1,-2.3575465E-1,-2.017238E-1,8.907555E-2,7.7501334E-2,5.0729793E-3,-6.3731265E-3,-6.3876626E-3,-1.0375243E-3,6.4746365E-3,1.6334752E-3,-4.173595E-4,2.2855713E-3],"split_indices":[246,385,353,572,395,446,590,0,0,0,0,0,0,0,0],"split_type":[0,0,0,0,0,0,0,0,0,0,0,0,0,0,0],"sum_hessian":[4.162916E3,1.7227946E3,2.4401213E3,1.3852046E2,1.5842742E3,5.162154E2,1.923906E3,1.1736654E2,2.1153921E1,8.055575E1,1.5037184E3,1.0880233E2,4.0741306E2,1.536548E3,3.873581E2],"tree_param":{"num_deleted":"0","num_feature":"768","num_nodes":"15","size_leaf_vector":"1"}},{"base_weights":[2.704451E-5,-9.321018E-2,6.586531E-2,6.552095E-2,-1.918807E-1,4.0684484E-2,4.8890087E-1,6.6364603E-3,-2.5777408E-5,-1.1367036E-3,-5.5092E-3,-1.2306287E-3,1.2256604E-3,6.8319063E-3,-1.6765192E-3],"categories":[],"categories_nodes":[],"categories_segments":[],"categories_sizes":[],"default_left":[0,0,0,0,0,0,0,0,0,0,0,0,0,0,0],"id":16,"left_children":[1,3,5,7,9,11,13,-1,-1,-1,-1,-1,-1,-1,-1],"loss_changes":[2.5566223E1,2.701007E1,2.59836E1,2.6946232E1,2.9793598E1,3.0920889E1,1.7596867E1,0E0,0E0,0E0,0E0,0E0,0E0,0E0,0E0],"parents":[2147483647,0,0,1,1,2,2,3,3,4,4,5,5,6,6],"right_children":[2,4,6,8,10,12,14,-1,-1,-1,-1,-1,-1,-1,-1],"split_conditions":[5.448446E-2,2.2091705E-1,3.8133764E-1,1.7777073E-1,8.549347E-1,-1.4757615E-1,1.9059616E-1,6.6364603E-3,-2.5777408E-5,-1.1367036E-3,-5.5092E-3,-1.2306287E-3,1.2256604E-3,6.8319063E-3,-1.6765192E-3],"split_indices":[246,686,325,385,414,663,723,0,0,0,0,0,0,0,0],"split_type":[0,0,0,0,0,0,0,0,0,0,0,0,0,0,0],"sum_hessian":[4.1628447E3,1.7227487E3,2.4400962E3,6.60515E2,1.0622336E3,2.304046E3,1.3605016E2,6.6621254E1,5.9389374E2,8.733143E2,1.889194E2,7.6789703E2,1.5361489E3,1.0495181E2,3.1098343E1],"tree_param":{"num_deleted":"0","num_feature":"768","num_nodes":"15","size_leaf_vector":"1"}},{"base_weights":[2.7957081E-5,-9.228036E-2,6.5209515E-2,6.487738E-2,-1.8997285E-1,3.28934E-2,3.941886E-1,6.5726233E-3,-2.5519937E-5,-1.1253626E-3,-5.454868E-3,-1.4439182E-3,9.5236785E-4,-1.4310294E-4,6.8466524E-3],"categories":[],"categories_nodes":[],"categories_segments":[],"categories_sizes":[],"default_left":[0,0,0,0,0,0,0,0,0,0,0,0,0,0,0],"id":17,"left_children":[1,3,5,7,9,11,13,-1,-1,-1,-1,-1,-1,-1,-1],"loss_changes":[2.5058598E1,2.647662E1,2.5938791E1,2.6424692E1,2.92085E1,2.45926E1,2.5907269E1,0E0,0E0,0E0,0E0,0E0,0E0,0E0,0E0],"parents":[2147483647,0,0,1,1,2,2,3,3,4,4,5,5,6,6],"right_children":[2,4,6,8,10,12,14,-1,-1,-1,-1,-1,-1,-1,-1],"split_conditions":[5.448446E-2,2.2091705E-1,-2.1327834E-1,1.7777073E-1,8.549347E-1,-7.6604284E-2,-1.5484183E-1,6.5726233E-3,-2.5519937E-5,-1.1253626E-3,-5.454868E-3,-1.4439182E-3,9.5236785E-4,-1.4310294E-4,6.8466524E-3],"split_indices":[246,686,572,385,414,498,89,0,0,0,0,0,0,0,0],"split_type":[0,0,0,0,0,0,0,0,0,0,0,0,0,0,0],"sum_hessian":[4.162772E3,1.7227068E3,2.4400654E3,6.604991E2,1.0622078E3,2.222815E3,2.1725046E2,6.660542E1,5.938936E2,8.733046E2,1.8890309E2,5.7796E2,1.6448549E3,9.0678925E1,1.2657153E2],"tree_param":{"num_deleted":"0","num_feature":"768","num_nodes":"15","size_leaf_vector":"1"}},{"base_weights":[2.9224437E-5,-9.136005E-2,6.4560845E-2,1.5017171E-1,-1.5387586E-1,2.6228383E-1,1.1403201E-2,4.48681E-3,-6.704933E-4,-9.211979E-6,-2.7155092E-3,3.8007554E-3,-6.511422E-4,5.180315E-3,-1.1447047E-4],"categories":[],"categories_nodes":[],"categories_segments":[],"categories_sizes":[],"default_left":[0,0,0,0,0,0,0,0,0,0,0,0,0,0,0],"id":18,"left_children":[1,3,5,7,9,11,13,-1,-1,-1,-1,-1,-1,-1,-1],"loss_changes":[2.4561287E1,2.6049606E1,2.5653496E1,2.3043415E1,2.4653793E1,1.9969353E1,2.2289288E1,0E0,0E0,0E0,0E0,0E0,0E0,0E0,0E0],"parents":[2147483647,0,0,1,1,2,2,3,3,4,4,5,5,6,6],"right_children":[2,4,6,8,10,12,14,-1,-1,-1,-1,-1,-1,-1,-1],"split_conditions":[5.448446E-2,-5.6938475E-1,-1.1258553E-1,1.1723464E-1,-8.5156076E-2,-1.5139185E-2,1.7445272E-1,4.48681E-3,-6.704933E-4,-9.211979E-6,-2.7155092E-3,3.8007554E-3,-6.511422E-4,5.180315E-3,-1.1447047E-4],"split_indices":[246,256,353,451,510,171,524,0,0,0,0,0,0,0,0],"split_type":[0,0,0,0,0,0,0,0,0,0,0,0,0,0,0],"sum_hessian":[4.162697E3,1.7226603E3,2.4400364E3,3.5391122E2,1.368749E3,5.161716E2,1.9238647E3,1.4861546E2,2.0529575E2,5.955969E2,7.7315216E2,3.7948062E2,1.3669093E2,8.209134E1,1.8417734E3],"tree_param":{"num_deleted":"0","num_feature":"768","num_nodes":"15","size_leaf_vector":"1"}},{"base_weights":[3.1152656E-5,-9.044714E-2,6.391934E-2,6.4906225E-2,-1.870198E-1,3.9002582E-2,4.82591E-1,6.5108263E-3,-1.8021166E-5,-1.103476E-3,-5.3906324E-3,-1.229172E-3,1.1997292E-3,-3.7770767E-3,6.282405E-3],"categories":[],"categories_nodes":[],"categories_segments":[],"categories_sizes":[],"default_left":[0,0,0,0,0,0,0,0,0,0,0,0,0,0,0],"id":19,"left_children":[1,3,5,7,9,11,13,-1,-1,-1,-1,-1,-1,-1,-1],"loss_changes":[2.4073702E1,2.587165E1,2.5445633E1,2.5866783E1,2.8637253E1,3.0234674E1,1.7406895E1,0E0,0E0,0E0,0E0,0E0,0E0,0E0,0E0],"parents":[2147483647,0,0,1,1,2,2,3,3,4,4,5,5,6,6],"right_children":[2,4,6,8,10,12,14,-1,-1,-1,-1,-1,-1,-1,-1],"split_conditions":[5.448446E-2,2.2091705E-1,3.8133764E-1,1.7777073E-1,8.549347E-1,-1.4757615E-1,-2.786704E-1,6.5108263E-3,-1.8021166E-5,-1.103476E-3,-5.3906324E-3,-1.229172E-3,1.1997292E-3,-3.7770767E-3,6.282405E-3],"split_indices":[246,686,325,385,414,663,313,0,0,0,0,0,0,0,0],"split_type":[0,0,0,0,0,0,0,0,0,0,0,0,0,0,0],"sum_hessian":[4.1626436E3,1.7226355E3,2.4400078E3,6.6047626E2,1.0621593E3,2.3039822E3,1.360257E2,6.6588936E1,5.938873E2,8.732796E2,1.888797E2,7.678874E2,1.5360947E3,1.9464241E1,1.16561455E2],"tree_param":{"num_deleted":"0","num_feature":"768","num_nodes":"15","size_leaf_vector":"1"}},{"base_weights":[3.143505E-5,-2.8086898E-1,2.02215E-2,-1.2819184E0,-1.7414054E-1,-7.355937E-3,2.547626E-1,-1.4897931E-2,1.2276684E-2,7.737231E-3,-2.8501141E-3,7.852855E-6,-7.7228807E-3,-2.5334573E-4,4.299636E-3],"categories":[],"categories_nodes":[],"categories_segments":[],"categories_sizes":[],"default_left":[0,0,0,0,0,0,0,0,0,0,0,0,0,0,0],"id":20,"left_children":[1,3,5,7,9,11,13,-1,-1,-1,-1,-1,-1,-1,-1],"loss_changes":[2.3618876E1,2.9613104E1,2.5132143E1,1.5782902E1,2.6862284E1,2.1656666E1,2.0072031E1,0E0,0E0,0E0,0E0,0E0,0E0,0E0,0E0],"parents":[2147483647,0,0,1,1,2,2,3,3,4,4,5,5,6,6],"right_children":[2,4,6,8,10,12,14,-1,-1,-1,-1,-1,-1,-1,-1],"split_conditions":[7.442564E-1,1.4193027E-1,-2.1773009E-1,3.5098723E-1,2.248463E-2,3.3573374E-2,5.030489E-2,-1.4897931E-2,1.2276684E-2,7.737231E-3,-2.8501141E-3,7.852855E-6,-7.7228807E-3,-2.5334573E-4,4.299636E-3],"split_indices":[157,449,572,531,327,654,246,0,0,0,0,0,0,0,0],"split_type":[0,0,0,0,0,0,0,0,0,0,0,0,0,0,0],"sum_hessian":[4.1625586E3,2.782607E2,3.8842979E3,2.5748068E1,2.5251263E2,3.4764983E3,4.0779947E2,2.4153719E1,1.5943484E0,2.5817091E1,2.2669556E2,3.440876E3,3.562249E1,1.5725244E2,2.5054704E2],"tree_param":{"num_deleted":"0","num_feature":"768","num_nodes":"15","size_leaf_vector":"1"}},{"base_weights":[3.0780782E-5,-8.924479E-2,6.3068785E-2,3.1990308E-1,-1.251842E-1,2.5857502E-1,1.0510227E-2,-8.253462E-3,4.6710614E-3,-6.252562E-3,-9.800314E-4,6.3491953E-3,1.567893E-3,-4.3332114E-4,2.2365793E-3],"categories":[],"categories_nodes":[],"categories_segments":[],"categories_sizes":[],"default_left":[0,0,0,0,0,0,0,0,0,0,0,0,0,0,0],"id":21,"left_children":[1,3,5,7,9,11,13,-1,-1,-1,-1,-1,-1,-1,-1],"loss_changes":[2.343697E1,2.5384415E1,2.5079407E1,2.3895367E1,2.1484451E1,1.9710045E1,2.2099688E1,0E0,0E0,0E0,0E0,0E0,0E0,0E0,0E0],"parents":[2147483647,0,0,1,1,2,2,3,3,4,4,5,5,6,6],"right_children":[2,4,6,8,10,12,14,-1,-1,-1,-1,-1,-1,-1,-1],"split_conditions":[5.448446E-2,1.8021445E-1,-1.1258553E-1,-1.3311046E-1,-2.017238E-1,8.907555E-2,7.7501334E-2,-8.253462E-3,4.6710614E-3,-6.252562E-3,-9.800314E-4,6.3491953E-3,1.567893E-3,-4.3332114E-4,2.2365793E-3],"split_indices":[246,385,353,153,395,446,590,0,0,0,0,0,0,0,0],"split_type":[0,0,0,0,0,0,0,0,0,0,0,0,0,0,0],"sum_hessian":[4.162533E3,1.7225753E3,2.439958E3,1.3845457E2,1.5841207E3,5.16134E2,1.9238241E3,1.5244506E1,1.2321007E2,8.053058E1,1.5035901E3,1.0876101E2,4.0737296E2,1.5364937E3,3.8733047E2],"tree_param":{"num_deleted":"0","num_feature":"768","num_nodes":"15","size_leaf_vector":"1"}},{"base_weights":[3.0264453E-5,-2.7759486E-1,1.998445E-2,-1.2687184E0,-1.7193718E-1,-7.316272E-3,2.5218332E-1,-1.5393791E-2,7.2547784E-3,7.664123E-3,-2.8169905E-3,1.4220148E-3,-4.846236E-4,3.5005598E-3,-2.415836E-3],"categories":[],"categories_nodes":[],"categories_segments":[],"categories_sizes":[],"default_left":[0,0,0,0,0,0,0,0,0,0,0,0,0,0,0],"id":22,"left_children":[1,3,5,7,9,11,13,-1,-1,-1,-1,-1,-1,-1,-1],"loss_changes":[2.3070152E1,2.9024588E1,2.4630907E1,1.5552055E1,2.6325436E1,2.140029E1,1.9838995E1,0E0,0E0,0E0,0E0,0E0,0E0,0E0,0E0],"parents":[2147483647,0,0,1,1,2,2,3,3,4,4,5,5,6,6],"right_children":[2,4,6,8,10,12,14,-1,-1,-1,-1,-1,-1,-1,-1],"split_conditions":[7.442564E-1,1.4193027E-1,-2.1773009E-1,-9.3566254E-2,2.248463E-2,-2.4030781E-1,6.608623E-1,-1.5393791E-2,7.2547784E-3,7.664123E-3,-2.8169905E-3,1.4220148E-3,-4.846236E-4,3.5005598E-3,-2.415836E-3],"split_indices":[157,449,572,266,327,453,248,0,0,0,0,0,0,0,0],"split_type":[0,0,0,0,0,0,0,0,0,0,0,0,0,0,0],"sum_hessian":[4.162449E3,2.782473E2,3.884202E3,2.5744337E1,2.5250296E2,3.4764302E3,4.0777185E2,2.2868587E1,2.875751E0,2.5816483E1,2.2668648E2,7.496987E2,2.7267314E3,3.4055862E2,6.721323E1],"tree_param":{"num_deleted":"0","num_feature":"768","num_nodes":"15","size_leaf_vector":"1"}},{"base_weights":[2.9616362E-5,-8.8258594E-2,6.2369574E-2,6.5391324E-2,-1.8377344E-1,3.7757684E-2,4.759998E-1,6.4101205E-3,-8.977881E-7,-1.0795827E-3,-5.319376E-3,-1.2246559E-3,1.178817E-3,-5.259605E-3,5.9947567E-3],"categories":[],"categories_nodes":[],"categories_segments":[],"categories_sizes":[],"default_left":[0,0,0,0,0,0,0,0,0,0,0,0,0,0,0],"id":23,"left_children":[1,3,5,7,9,11,13,-1,-1,-1,-1,-1,-1,-1,-1],"loss_changes":[2.292052E1,2.5306095E1,2.4831032E1,2.4930899E1,2.8003937E1,2.9604296E1,1.7264225E1,0E0,0E0,0E0,0E0,0E0,0E0,0E0,0E0],"parents":[2147483647,0,0,1,1,2,2,3,3,4,4,5,5,6,6],"right_children":[2,4,6,8,10,12,14,-1,-1,-1,-1,-1,-1,-1,-1],"split_conditions":[5.448446E-2,2.2091705E-1,3.8133764E-1,1.7777073E-1,8.549347E-1,-1.4757615E-1,-9.031551E-2,6.4101205E-3,-8.977881E-7,-1.0795827E-3,-5.319376E-3,-1.2246559E-3,1.178817E-3,-5.259605E-3,5.9947567E-3],"split_indices":[246,686,325,385,414,663,103,0,0,0,0,0,0,0,0],"split_type":[0,0,0,0,0,0,0,0,0,0,0,0,0,0,0],"sum_hessian":[4.162427E3,1.7225172E3,2.4399097E3,6.6043085E2,1.0620863E3,2.3039133E3,1.3599652E2,6.655761E1,5.938732E2,8.732419E2,1.888444E2,7.67874E2,1.5360392E3,1.4563069E1,1.2143346E2],"tree_param":{"num_deleted":"0","num_feature":"768","num_nodes":"15","size_leaf_vector":"1"}},{"base_weights":[2.9521283E-5,-2.7441847E-1,1.9754574E-2,-1.2560862E0,-1.6978742E-1,-7.308551E-3,2.4994108E-1,-1.46262245E-2,1.2298422E-2,7.5933957E-3,-2.7847136E-3,2.0632416E-4,-2.2555932E-3,3.4662583E-3,-2.378464E-3],"categories":[],"categories_nodes":[],"categories_segments":[],"categories_sizes":[],"default_left":[0,0,0,0,0,0,0,0,0,0,0,0,0,0,0],"id":24,"left_children":[1,3,5,7,9,11,13,-1,-1,-1,-1,-1,-1,-1,-1],"loss_changes":[2.2543615E1,2.8467163E1,2.4204325E1,1.5527382E1,2.5809214E1,2.1210035E1,1.935966E1,0E0,0E0,0E0,0E0,0E0,0E0,0E0,0E0],"parents":[2147483647,0,0,1,1,2,2,3,3,4,4,5,5,6,6],"right_children":[2,4,6,8,10,12,14,-1,-1,-1,-1,-1,-1,-1,-1],"split_conditions":[7.442564E-1,1.4193027E-1,-2.1773009E-1,3.5098723E-1,2.248463E-2,-6.0931478E-2,6.608623E-1,-1.46262245E-2,1.2298422E-2,7.5933957E-3,-2.7847136E-3,2.0632416E-4,-2.2555932E-3,3.4662583E-3,-2.378464E-3],"split_indices":[157,449,572,531,327,626,248,0,0,0,0,0,0,0,0],"split_type":[0,0,0,0,0,0,0,0,0,0,0,0,0,0,0],"sum_hessian":[4.1623306E3,2.782291E2,3.8841016E3,2.5738724E1,2.5249037E2,3.4763535E3,4.077481E2,2.4144394E1,1.5943296E0,2.5814907E1,2.2667548E2,3.0826155E3,3.937381E2,3.40539E2,6.720911E1],"tree_param":{"num_deleted":"0","num_feature":"768","num_nodes":"15","size_leaf_vector":"1"}}]},"name":"gbtree"},"learner_model_param":{"base_score":"[5E-1]","boost_from_average":"1","num_class":"0","num_feature":"768","num_target":"1"},"objective":{"name":"binary:logistic","reg_loss_param":{"scale_pos_weight":"2.12640452"}}},"version":[3,2,0]}